<?xml version="1.0" encoding="utf-8"?>
<Root>
  <ActivationFunctions>
    <Fn id="0" name="SteepenedSigmoid" prob="1" />
  </ActivationFunctions>
  <Networks>
    <Network id="18939" birthGen="156" fitness="9.792476038767882">
      <Nodes>
        <Node type="bias" id="0" />
        <Node type="in" id="1" />
        <Node type="in" id="2" />
        <Node type="in" id="3" />
        <Node type="in" id="4" />
        <Node type="in" id="5" />
        <Node type="in" id="6" />
        <Node type="in" id="7" />
        <Node type="in" id="8" />
        <Node type="in" id="9" />
        <Node type="in" id="10" />
        <Node type="in" id="11" />
        <Node type="in" id="12" />
        <Node type="in" id="13" />
        <Node type="in" id="14" />
        <Node type="in" id="15" />
        <Node type="in" id="16" />
        <Node type="in" id="17" />
        <Node type="in" id="18" />
        <Node type="in" id="19" />
        <Node type="in" id="20" />
        <Node type="in" id="21" />
        <Node type="in" id="22" />
        <Node type="in" id="23" />
        <Node type="in" id="24" />
        <Node type="in" id="25" />
        <Node type="out" id="26" />
      </Nodes>
      <Connections>
        <Con id="48" src="21" tgt="26" wght="-0.053684914948635379" />
        <Con id="54" src="5" tgt="26" wght="3.0836968589852902" />
        <Con id="59" src="8" tgt="26" wght="4.7486264182140951" />
        <Con id="60" src="16" tgt="26" wght="4.201556348564063" />
        <Con id="71" src="4" tgt="26" wght="-3.1475033519495206" />
        <Con id="75" src="23" tgt="26" wght="-0.959187617216944" />
        <Con id="79" src="22" tgt="26" wght="0.0073259637907872668" />
        <Con id="80" src="3" tgt="26" wght="-0.041360850683809521" />
        <Con id="82" src="24" tgt="26" wght="-0.0156926569173757" />
        <Con id="86" src="1" tgt="26" wght="-0.0078347407016821635" />
        <Con id="95" src="11" tgt="26" wght="-3.6216265880232159" />
        <Con id="99" src="9" tgt="26" wght="-3.4671205623900994" />
        <Con id="101" src="17" tgt="26" wght="-0.0301862146383797" />
        <Con id="102" src="25" tgt="26" wght="0.014716870965368757" />
        <Con id="120" src="26" tgt="26" wght="0.0093258103586865131" />
        <Con id="124" src="12" tgt="26" wght="-1.2922622635960579" />
      </Connections>
    </Network>
  </Networks>
</Root>